<opencv_storage><cascade><stageType>BOOST</stageType><featureType>HOG</featureType><stage><stageNum>0</stageNum><stageThreshold>-0.18357695639133453</stageThreshold><weakClassifiers><_><internalNodes>0.0 -1.0 27.0 0.03138654679059982</internalNodes><leafValues>-0.7426900863647461 0.8947368264198303</leafValues></_><_><internalNodes>0.0 -1.0 21.0 0.02442200481891632</internalNodes><leafValues>0.7299408912658691 -0.7388647794723511</leafValues></_><_><internalNodes>0.0 -1.0 33.0 0.02170461043715477</internalNodes><leafValues>-0.837324321269989 0.6320432424545288</leafValues></_><_><internalNodes>0.0 -1.0 5.0 0.037717439234256744</internalNodes><leafValues>-0.7100296020507812 0.6664965152740479</leafValues></_></weakClassifiers></stage><stage><stageNum>1</stageNum><stageThreshold>-0.5135999917984009</stageThreshold><weakClassifiers><_><internalNodes>0.0 -1.0 8.0 0.010970644652843475</internalNodes><leafValues>0.7666666507720947 -0.726190447807312</leafValues></_><_><internalNodes>0.0 -1.0 15.0 0.017537351697683334</internalNodes><leafValues>0.4497421979904175 -0.8367325663566589</leafValues></_><_><internalNodes>0.0 -1.0 0.0 0.019498534500598907</internalNodes><leafValues>0.6476697325706482 -0.6267520189285278</leafValues></_><_><internalNodes>0.0 -1.0 3.0 0.017710812389850616</internalNodes><leafValues>0.41875603795051575 -0.8354303240776062</leafValues></_><_><internalNodes>0.0 -1.0 10.0 0.02328072488307953</internalNodes><leafValues>-0.7935007214546204 0.4902137219905853</leafValues></_><_><internalNodes>0.0 -1.0 11.0 0.05195173621177673</internalNodes><leafValues>-0.4574090838432312 0.8927515149116516</leafValues></_><_><internalNodes>0.0 -1.0 32.0 0.028383199125528336</internalNodes><leafValues>-0.6606586575508118 0.626442551612854</leafValues></_><_><internalNodes>0.0 -1.0 2.0 0.01500933337956667</internalNodes><leafValues>0.5953115224838257 -0.6275262236595154</leafValues></_></weakClassifiers></stage><stage><stageNum>2</stageNum><stageThreshold>-0.3519616425037384</stageThreshold><weakClassifiers><_><internalNodes>0.0 -1.0 30.0 0.014150543138384819</internalNodes><leafValues>0.4939759075641632 -0.8068965673446655</leafValues></_><_><internalNodes>0.0 -1.0 19.0 0.017669152468442917</internalNodes><leafValues>0.5361953377723694 -0.6082211136817932</leafValues></_><_><internalNodes>0.0 -1.0 6.0 0.01686636358499527</internalNodes><leafValues>0.47599831223487854 -0.7294278740882874</leafValues></_><_><internalNodes>0.0 -1.0 26.0 0.038298025727272034</internalNodes><leafValues>-0.5006999373435974 0.6883991360664368</leafValues></_><_><internalNodes>0.0 -1.0 5.0 0.026133088394999504</internalNodes><leafValues>-0.7427138686180115 0.49073946475982666</leafValues></_><_><internalNodes>0.0 -1.0 14.0 0.011063361540436745</internalNodes><leafValues>0.7495671510696411 -0.54729825258255</leafValues></_></weakClassifiers></stage><stage><stageNum>3</stageNum><stageThreshold>-0.4071253836154938</stageThreshold><weakClassifiers><_><internalNodes>0.0 -1.0 18.0 0.045982323586940765</internalNodes><leafValues>-0.654321014881134 0.4545454680919647</leafValues></_><_><internalNodes>0.0 -1.0 20.0 0.02946353331208229</internalNodes><leafValues>-0.5333739519119263 0.49834492802619934</leafValues></_><_><internalNodes>0.0 -1.0 31.0 0.01927316002547741</internalNodes><leafValues>0.4124573767185211 -0.7515437006950378</leafValues></_><_><internalNodes>0.0 -1.0 23.0 0.0216688122600317</internalNodes><leafValues>-0.7778885364532471 0.2888854444026947</leafValues></_><_><internalNodes>0.0 -1.0 1.0 0.022328726947307587</internalNodes><leafValues>-0.7455943822860718 0.38225382566452026</leafValues></_><_><internalNodes>0.0 -1.0 12.0 0.020188746973872185</internalNodes><leafValues>0.40367740392684937 -0.6424310207366943</leafValues></_><_><internalNodes>0.0 -1.0 25.0 0.031560786068439484</internalNodes><leafValues>-0.5825847387313843 0.3338318467140198</leafValues></_><_><internalNodes>0.0 -1.0 29.0 0.020703084766864777</internalNodes><leafValues>-0.7288589477539062 0.3777415156364441</leafValues></_><_><internalNodes>0.0 -1.0 7.0 0.016417983919382095</internalNodes><leafValues>0.45433861017227173 -0.6748229265213013</leafValues></_><_><internalNodes>0.0 -1.0 9.0 0.023375824093818665</internalNodes><leafValues>-0.6348392963409424 0.3775351345539093</leafValues></_></weakClassifiers></stage><stage><stageNum>4</stageNum><stageThreshold>0.10968577861785889</stageThreshold><weakClassifiers><_><internalNodes>0.0 -1.0 28.0 0.02585543692111969</internalNodes><leafValues>-0.3913043439388275 0.8157894611358643</leafValues></_><_><internalNodes>0.0 -1.0 24.0 0.018211539834737778</internalNodes><leafValues>0.8159183859825134 -0.5114971399307251</leafValues></_><_><internalNodes>0.0 -1.0 17.0 0.006945408880710602</internalNodes><leafValues>-0.7445588707923889 0.46065154671669006</leafValues></_><_><internalNodes>0.0 -1.0 16.0 0.026030633598566055</internalNodes><leafValues>0.6296261548995972 -0.5552163124084473</leafValues></_><_><internalNodes>0.0 -1.0 13.0 0.00715422909706831</internalNodes><leafValues>0.9748748540878296 -0.34511780738830566</leafValues></_><_><internalNodes>0.0 -1.0 22.0 0.008021964691579342</internalNodes><leafValues>0.9208746552467346 -0.30470213294029236</leafValues></_><_><internalNodes>0.0 -1.0 4.0 0.024587880820035934</internalNodes><leafValues>0.5701460838317871 -0.5735332369804382</leafValues></_></weakClassifiers></stage><features><_>0 4 8 8 4</_><_>0 4 8 8 26</_><_>4 0 8 8 16</_><_>4 0 8 8 17</_><_>4 12 8 8 35</_><_>8 0 8 8 2</_><_>8 0 8 8 17</_><_>12 0 8 8 0</_><_>12 0 8 8 11</_><_>12 0 8 8 14</_><_>12 0 8 8 15</_><_>12 12 8 8 28</_><_>12 16 8 8 26</_><_>12 16 8 8 32</_><_>12 16 8 8 33</_><_>16 0 8 8 0</_><_>16 4 8 8 13</_><_>16 8 8 8 23</_><_>16 16 8 8 9</_><_>16 16 8 8 13</_><_>0 0 8 16 0</_><_>0 0 8 16 22</_><_>4 0 8 16 5</_><_>4 0 8 16 12</_><_>4 0 8 16 16</_><_>4 0 8 16 26</_><_>12 0 8 16 16</_><_>16 0 8 16 16</_><_>16 0 8 16 35</_><_>0 0 16 8 1</_><_>0 0 16 8 6</_><_>0 0 16 8 10</_><_>0 0 16 16 24</_><_>0 0 16 16 25</_></features></cascade></opencv_storage>